Language model created by QuickLM on Sun Feb 12 03:12:12 EST 2017
Copyright (c) 1996-2010 Carnegie Mellon University and Alexander I. Rudnicky

The model is in standard ARPA format, designed by Doug Paul while he was at MITRE.

The code that was used to produce this language model is available in Open Source.
Please visit http://www.speech.cs.cmu.edu/tools/ for more information

The (fixed) discount mass is 0.5. The backoffs are computed using the ratio method.
This model based on a corpus of 2 sentences and 5 words

\data\
ngram 1=5
ngram 2=5
ngram 3=3

\1-grams:
-0.8451 </s> -0.3010
-0.8451 <s> -0.2341
-1.1461 ALLOW -0.2341
-1.1461 CHAT -0.2341
-1.1461 CLEAR -0.2688

\2-grams:
-0.6021 <s> ALLOW 0.0000
-0.6021 <s> CLEAR 0.0000
-0.3010 ALLOW </s> -0.3010
-0.3010 CHAT </s> -0.3010
-0.3010 CLEAR CHAT 0.0000

\3-grams:
-0.3010 <s> ALLOW </s>
-0.3010 <s> CLEAR CHAT
-0.3010 CLEAR CHAT </s>

\end\